<?xml version="1.0"?>
<opencv_storage>
<cascade>
  <stageType>BOOST</stageType>
  <featureType>HAAR</featureType>
  <height>24</height>
  <width>24</width>
  <stageParams>
    <boostType>GAB</boostType>
    <minHitRate>9.9500000476837158e-01</minHitRate>
    <maxFalseAlarm>5.0000000000000000e-01</maxFalseAlarm>
    <weightTrimRate>9.4999998807907104e-01</weightTrimRate>
    <maxDepth>1</maxDepth>
    <maxWeakCount>100</maxWeakCount></stageParams>
  <featureParams>
    <maxCatCount>0</maxCatCount>
    <featSize>1</featSize>
    <mode>BASIC</mode></featureParams>
  <stageNum>4</stageNum>
  <stages>
    <!-- stage 0 -->
    <_>
      <maxWeakCount>2</maxWeakCount>
      <stageThreshold>-8.2635432481765747e-02</stageThreshold>
      <weakClassifiers>
        <_>
          <internalNodes>
            0 -1 0 6.3987618684768677e-01</internalNodes>
          <leafValues>
            -9.8461538553237915e-01 1.</leafValues></_>
        <_>
          <internalNodes>
            0 -1 1 6.5910086035728455e-02</internalNodes>
          <leafValues>
            -9.8689800500869751e-01 9.0197992324829102e-01</leafValues></_></weakClassifiers></_>
    <!-- stage 1 -->
    <_>
      <maxWeakCount>2</maxWeakCount>
      <stageThreshold>-2.4409481883049011e-01</stageThreshold>
      <weakClassifiers>
        <_>
          <internalNodes>
            0 -1 4 -1.6564239561557770e-01</internalNodes>
          <leafValues>
            7.3451328277587891e-01 -9.9550563097000122e-01</leafValues></_>
        <_>
          <internalNodes>
            0 -1 5 -7.7385595068335533e-03</internalNodes>
          <leafValues>
            8.3273565769195557e-01 -9.7860807180404663e-01</leafValues></_></weakClassifiers></_>
    <!-- stage 2 -->
    <_>
      <maxWeakCount>2</maxWeakCount>
      <stageThreshold>-4.0101772546768188e-01</stageThreshold>
      <weakClassifiers>
        <_>
          <internalNodes>
            0 -1 2 6.8285799026489258e-01</internalNodes>
          <leafValues>
            -9.7582417726516724e-01 9.1397851705551147e-01</leafValues></_>
        <_>
          <internalNodes>
            0 -1 2 5.6340575218200684e-01</internalNodes>
          <leafValues>
            -1. 5.7480645179748535e-01</leafValues></_></weakClassifiers></_>
    <!-- stage 3 -->
    <_>
      <maxWeakCount>2</maxWeakCount>
      <stageThreshold>-2.6927182078361511e-01</stageThreshold>
      <weakClassifiers>
        <_>
          <internalNodes>
            0 -1 3 -1.6904640197753906e-01</internalNodes>
          <leafValues>
            8.5858583450317383e-01 -9.8230087757110596e-01</leafValues></_>
        <_>
          <internalNodes>
            0 -1 6 3.5432323813438416e-02</internalNodes>
          <leafValues>
            -1. 7.1302902698516846e-01</leafValues></_></weakClassifiers></_></stages>
  <features>
    <_>
      <rects>
        <_>
          0 0 23 24 -1.</_>
        <_>
          0 8 23 8 3.</_></rects>
      <tilted>0</tilted></_>
    <_>
      <rects>
        <_>
          0 11 5 12 -1.</_>
        <_>
          0 15 5 4 3.</_></rects>
      <tilted>0</tilted></_>
    <_>
      <rects>
        <_>
          1 0 23 18 -1.</_>
        <_>
          1 9 23 9 2.</_></rects>
      <tilted>0</tilted></_>
    <_>
      <rects>
        <_>
          3 14 21 5 -1.</_>
        <_>
          10 14 7 5 3.</_></rects>
      <tilted>0</tilted></_>
    <_>
      <rects>
        <_>
          6 10 15 13 -1.</_>
        <_>
          11 10 5 13 3.</_></rects>
      <tilted>0</tilted></_>
    <_>
      <rects>
        <_>
          10 9 3 12 -1.</_>
        <_>
          11 9 1 12 3.</_></rects>
      <tilted>0</tilted></_>
    <_>
      <rects>
        <_>
          15 14 6 6 -1.</_>
        <_>
          18 14 3 6 2.</_></rects>
      <tilted>0</tilted></_></features></cascade>
</opencv_storage>
